time	I(R1)	I(R12)
0.000000000000000e+00	-5.840213e-07	1.039324e-03
9.999999717180685e-10	-5.846497e-07	1.039324e-03
1.999999943436137e-09	-5.852780e-07	1.039324e-03
3.999999886872274e-09	-5.865346e-07	1.039324e-03
7.999999773744548e-09	-5.890479e-07	1.039324e-03
1.599999954748910e-08	-5.940744e-07	1.039324e-03
3.199999909497819e-08	-6.041272e-07	1.039324e-03
6.399999818995639e-08	-6.242324e-07	1.039324e-03
1.279999963799128e-07	-6.644410e-07	1.039324e-03
2.559999927598255e-07	-7.448503e-07	1.039324e-03
5.119999855196511e-07	-9.056379e-07	1.039325e-03
1.023999971039302e-06	-1.227089e-06	1.039329e-03
2.047999942078604e-06	-1.869495e-06	1.039361e-03
4.095999884157209e-06	-3.152365e-06	1.039602e-03
8.191999768314417e-06	-5.710844e-06	1.041316e-03
1.638399953662883e-05	-1.080205e-05	1.052351e-03
2.919519308688746e-05	-1.869692e-05	1.094005e-03
4.420467847068848e-05	-2.781577e-05	1.176586e-03
5.972471734335499e-05	-3.702684e-05	1.284592e-03
7.545325165232655e-05	-4.603470e-05	1.399106e-03
9.590406452918417e-05	-5.708232e-05	1.538325e-03
1.208707114327600e-04	-6.928313e-05	1.687561e-03
1.553613341091983e-04	-8.329301e-05	1.861342e-03
2.004893778099909e-04	-9.569694e-05	2.032238e-03
2.315256823664514e-04	-9.985590e-05	2.105826e-03
2.581073888824361e-04	-1.004280e-04	2.136405e-03
2.781992087532396e-04	-9.901423e-05	2.139138e-03
3.004931013735467e-04	-9.561354e-05	2.121722e-03
3.163086758629740e-04	-9.206712e-05	2.096568e-03
3.290675323308625e-04	-8.854644e-05	2.068667e-03
3.409594771663546e-04	-8.475580e-05	2.036712e-03
3.555824686335430e-04	-7.945347e-05	1.989941e-03
3.670523292539295e-04	-7.482665e-05	1.947628e-03
3.783572502372335e-04	-6.988928e-05	1.901358e-03
4.009670922038414e-04	-5.899323e-05	1.796136e-03
4.461867761370572e-04	-3.391698e-05	1.543272e-03
5.126123318242806e-04	7.130803e-06	1.106109e-03
5.800617330760785e-04	4.741445e-05	6.488934e-04
6.459352678967505e-04	7.861080e-05	2.668660e-04
7.217605861162135e-04	9.775200e-05	-9.170195e-06
7.544109783758560e-04	9.933648e-05	-6.001259e-05
7.721821230338436e-04	9.843554e-05	-6.713736e-05
8.010744828218821e-04	9.434654e-05	-4.828569e-05
8.476175480273620e-04	8.129291e-05	5.648007e-05
9.201784841207971e-04	4.767591e-05	3.801406e-04
9.980412760530607e-04	8.551803e-07	8.769016e-04
1.060481825230374e-03	-3.748635e-05	1.307886e-03
1.124022820471033e-03	-7.070482e-05	1.700883e-03
1.189573331251945e-03	-9.336467e-05	1.997485e-03
1.241634912026959e-03	-1.004016e-04	2.120923e-03
1.261888432231954e-03	-1.002829e-04	2.138169e-03
1.284351210004954e-03	-9.826618e-05	2.136469e-03
1.306818136816657e-03	-9.430600e-05	2.112950e-03
1.321029121240774e-03	-9.083191e-05	2.087050e-03
1.333198191328501e-03	-8.728442e-05	2.058225e-03
1.345644918553655e-03	-8.313209e-05	2.022605e-03
1.359317649082562e-03	-7.799056e-05	1.976699e-03
1.373769016629791e-03	-7.193673e-05	1.920667e-03
1.388515997202231e-03	-6.515376e-05	1.856098e-03
1.418009958347110e-03	-4.998991e-05	1.706754e-03
1.476997880636867e-03	-1.516952e-05	1.347075e-03
1.542135426333500e-03	2.537220e-05	9.025086e-04
1.608702390575484e-03	6.232585e-05	4.707236e-04
1.683172793253721e-03	9.058482e-05	1.055919e-04
1.738938586464037e-03	9.910869e-05	-4.237582e-05
1.760883083656217e-03	9.915304e-05	-6.426277e-05
1.782715799052469e-03	9.731713e-05	-6.433412e-05
1.818127283259601e-03	9.045519e-05	-2.017297e-05
1.874637613306470e-03	7.042614e-05	1.562595e-04
1.960187104099920e-03	2.437663e-05	6.215310e-04
2.028188943963591e-03	-1.800058e-05	1.087444e-03
2.086967388633018e-03	-5.237055e-05	1.480617e-03
2.145695655440550e-03	-7.972878e-05	1.814262e-03
2.201581798400671e-03	-9.590665e-05	2.036037e-03
2.246536757573836e-03	-1.005213e-04	2.126624e-03
2.263712605244242e-03	-1.001928e-04	2.138778e-03
2.287317833398636e-03	-9.785318e-05	2.134572e-03
2.310277105384539e-03	-9.352820e-05	2.107447e-03
2.324944801896303e-03	-8.974702e-05	2.078454e-03
2.336833697598019e-03	-8.612533e-05	2.048480e-03
2.351352413030909e-03	-8.105774e-05	2.004290e-03
2.363793960560852e-03	-7.618131e-05	1.960157e-03
2.376098568076578e-03	-7.090449e-05	1.910936e-03
2.396028845958147e-03	-6.148143e-05	1.820503e-03
2.435889401721285e-03	-3.993893e-05	1.605061e-03
2.502717116114972e-03	9.259013e-07	1.174161e-03
2.570071253089361e-03	4.182238e-05	7.141774e-04
2.634816353794390e-03	7.416320e-05	3.237146e-04
2.716034050334189e-03	9.704418e-05	4.686320e-06
2.752213852721533e-03	9.936134e-05	-5.828605e-05
2.768604812553741e-03	9.871698e-05	-6.706653e-05
2.795267955781383e-03	9.542505e-05	-5.505835e-05
2.838328703332979e-03	8.449826e-05	2.863212e-05
2.906021810424750e-03	5.526323e-05	3.038667e-04
2.991815047051990e-03	4.766780e-06	8.329015e-04
3.056126394203104e-03	-3.492957e-05	1.279089e-03
3.122210709867747e-03	-6.988925e-05	1.690558e-03
3.184141026606787e-03	-9.204022e-05	1.978599e-03
3.232356134900121e-03	-9.991632e-05	2.107353e-03
3.258419408734013e-03	-1.004182e-04	2.136498e-03
3.278707012241005e-03	-9.895787e-05	2.138874e-03
3.301759176235234e-03	-9.536368e-05	2.120121e-03
3.317077045953376e-03	-9.187152e-05	2.095102e-03
3.329762551530779e-03	-8.833823e-05	2.066990e-03
3.342075934777282e-03	-8.437548e-05	2.033431e-03
3.356205411493145e-03	-7.921249e-05	1.987785e-03
3.369438911439306e-03	-7.381468e-05	1.938225e-03
3.382491990193654e-03	-6.799484e-05	1.883361e-03
3.408598147702350e-03	-5.503861e-05	1.757115e-03
3.460810462719740e-03	-2.513187e-05	1.452037e-03
3.526563342726308e-03	1.582254e-05	1.009772e-03
3.593764302015022e-03	5.477284e-05	5.617664e-04
3.663915854306483e-03	8.497698e-05	1.832691e-04
3.730405138182838e-03	9.857922e-05	-2.760555e-05
3.757685872625859e-03	9.926440e-05	-6.232895e-05
3.777513172024590e-03	9.792342e-05	-6.625379e-05
3.809714234982177e-03	9.250855e-05	-3.556120e-05
3.861359688279114e-03	7.604243e-05	1.038583e-04
3.940758015940842e-03	3.598170e-05	5.000772e-04
4.011879566619005e-03	-7.835075e-06	9.736744e-04
4.072237281416059e-03	-4.424381e-05	1.385616e-03
4.132924388414767e-03	-7.457843e-05	1.749182e-03
4.195492849112695e-03	-9.468478e-05	2.017114e-03
4.238077541558788e-03	-1.002553e-04	2.116092e-03
4.260561638841842e-03	-1.003402e-04	2.137594e-03
4.282192842715181e-03	-9.854526e-05	2.137610e-03
4.304424002726502e-03	-9.481848e-05	2.116467e-03
4.318962198327102e-03	-9.138259e-05	2.091355e-03
4.331334284758764e-03	-8.786118e-05	2.063015e-03
4.343465732232893e-03	-8.389625e-05	2.029290e-03
4.357426096445032e-03	-7.873678e-05	1.983462e-03
4.370080456485104e-03	-7.353982e-05	1.935684e-03
4.381902290960311e-03	-6.826784e-05	1.885942e-03
4.405545959910725e-03	-5.663586e-05	1.772926e-03
4.452833297811553e-03	-2.995447e-05	1.502201e-03
4.518727428421200e-03	1.095194e-05	1.063917e-03
4.585875262908668e-03	5.058294e-05	6.115423e-04
4.653782855840707e-03	8.151847e-05	2.291315e-04
4.725622057166532e-03	9.815753e-05	-1.781877e-05
4.755879347133733e-03	9.930938e-05	-6.106928e-05
4.774572609757276e-03	9.821960e-05	-6.689427e-05
4.804950769105222e-03	9.355620e-05	-4.294917e-05
4.853795455542629e-03	7.900580e-05	7.688375e-05
4.929486392223859e-03	4.247523e-05	4.331655e-04
5.003171259966790e-03	-2.368936e-06	9.129095e-04
5.064484231651209e-03	-3.981161e-05	1.334466e-03
5.126500886085203e-03	-7.180565e-05	1.714590e-03
5.194994201937692e-03	-9.457831e-05	2.015246e-03
5.243871421596601e-03	-1.004677e-04	2.123657e-03
5.262721169416128e-03	-1.002434e-04	2.138569e-03
5.285705607828967e-03	-9.808191e-05	2.135680e-03
5.308140413774753e-03	-9.401389e-05	2.110922e-03
5.323555626175805e-03	-9.013811e-05	2.081553e-03
5.335666881914760e-03	-8.650221e-05	2.051673e-03
5.350011293608611e-03	-8.155455e-05	2.008697e-03
5.363694703734583e-03	-7.622208e-05	1.960552e-03
5.377373543183593e-03	-7.033315e-05	1.905542e-03
5.397827453296076e-03	-6.058185e-05	1.811738e-03
5.438735273521042e-03	-3.829003e-05	1.588174e-03
5.505333488603118e-03	2.568110e-06	1.156222e-03
5.572599800922676e-03	4.325438e-05	6.975116e-04
5.637123714069551e-03	7.511690e-05	3.116078e-04
5.717248118044011e-03	9.720484e-05	1.641229e-06
5.752681795977884e-03	9.935762e-05	-5.863991e-05
5.769366738349485e-03	9.866123e-05	-6.713557e-05
5.796505210987982e-03	9.520582e-05	-5.368491e-05
5.840311259980807e-03	8.383817e-05	3.423158e-05
5.909058962464316e-03	5.367072e-05	3.198120e-04
5.992558767318633e-03	4.299502e-06	8.383376e-04
6.056338849526470e-03	-3.505485e-05	1.280384e-03
6.121740693705763e-03	-6.967608e-05	1.688015e-03
6.184260480065576e-03	-9.207059e-05	1.979035e-03
6.232529198779282e-03	-9.992839e-05	2.107599e-03
6.258484394362841e-03	-1.004161e-04	2.136557e-03
6.278812771982657e-03	-9.894605e-05	2.138844e-03
6.301814328852878e-03	-9.535268e-05	2.120065e-03
6.318016692175354e-03	-9.162942e-05	2.093239e-03
6.330578083422558e-03	-8.809177e-05	2.064974e-03
6.343607220256444e-03	-8.384713e-05	2.028845e-03
6.357262291252458e-03	-7.880088e-05	1.984081e-03
6.373838372551805e-03	-7.190622e-05	1.920381e-03
6.389060705817169e-03	-6.489224e-05	1.853609e-03
6.419505372347895e-03	-4.917140e-05	1.698539e-03
6.480394705409349e-03	-1.305647e-05	1.324686e-03
6.545579065894343e-03	2.745362e-05	8.789205e-04
6.612066202282219e-03	6.395260e-05	4.508915e-04
6.687409209087354e-03	9.164227e-05	9.027035e-05
6.740730249368478e-03	9.918345e-05	-4.501497e-05
6.761551313018001e-03	9.912465e-05	-6.463107e-05
6.783802846621946e-03	9.717722e-05	-6.377529e-05
6.819882482171935e-03	8.999452e-05	-1.659833e-05
6.877393588538372e-03	6.919710e-05	1.679467e-04
6.964159673333325e-03	2.195221e-05	6.471697e-04
7.031571337456996e-03	-2.008934e-05	1.111005e-03
7.090054375501424e-03	-5.401968e-05	1.500071e-03
7.148442589291518e-03	-8.077105e-05	1.827646e-03
7.203982247889162e-03	-9.634999e-05	2.042976e-03
7.247494865291895e-03	-1.005336e-04	2.127664e-03
7.264068822856499e-03	-1.001737e-04	2.138894e-03
7.287897017171842e-03	-9.776862e-05	2.134182e-03
7.311164905632266e-03	-9.332146e-05	2.105944e-03
7.324773802403696e-03	-8.979553e-05	2.078869e-03
7.336592897109164e-03	-8.620350e-05	2.049139e-03
7.350818071267276e-03	-8.125637e-05	2.006076e-03
7.362016232579612e-03	-7.690708e-05	1.966810e-03
7.373043542851098e-03	-7.225508e-05	1.923657e-03
7.389964574511598e-03	-6.445661e-05	1.849369e-03
7.423806637832597e-03	-4.679343e-05	1.674655e-03
7.491490764474596e-03	-6.119736e-06	1.250731e-03
7.562856987231415e-03	3.767881e-05	7.625123e-04
7.628299613365475e-03	7.138543e-05	3.586366e-04
7.709285137320573e-03	9.604923e-05	2.209396e-05
7.749588923948596e-03	9.936655e-05	-5.581322e-05
7.764847210362047e-03	9.895847e-05	-6.613116e-05
7.789162462865078e-03	9.642084e-05	-6.048820e-05
7.828521402286586e-03	8.756779e-05	2.866201e-06
7.890880586925638e-03	6.288757e-05	2.287426e-04
7.983283409760247e-03	1.011152e-05	7.736920e-04
8.049354121570687e-03	-3.090361e-05	1.233656e-03
8.107651025863645e-03	-6.301766e-05	1.607459e-03
8.166807111978759e-03	-8.711083e-05	1.910628e-03
8.218884302041497e-03	-9.861113e-05	2.080959e-03
8.253310564269376e-03	-1.005307e-04	2.133012e-03
8.270390503149108e-03	-9.975154e-05	2.140068e-03
8.297031891889163e-03	-9.626553e-05	2.125819e-03
8.322537378852937e-03	-9.042045e-05	2.083868e-03
8.336778148475148e-03	-8.614335e-05	2.048671e-03
8.349336637606748e-03	-8.180243e-05	2.010985e-03
8.362996527082502e-03	-7.650805e-05	1.963143e-03
8.375795514403223e-03	-7.103966e-05	1.912256e-03
8.394908234642914e-03	-6.203799e-05	1.825889e-03
8.433133675122297e-03	-4.152355e-05	1.621240e-03
8.500169821279498e-03	-6.734269e-07	1.191628e-03
8.568006007583295e-03	4.064478e-05	7.278961e-04
8.633130257942642e-03	7.345636e-05	3.326560e-04
8.715122032966276e-03	9.691975e-05	7.047096e-06
8.751861521722819e-03	9.936361e-05	-5.803251e-05
8.768031123648646e-03	9.875745e-05	-6.695333e-05
8.794336192550831e-03	9.558623e-05	-5.602875e-05
8.836834539941442e-03	8.498708e-05	2.450880e-05
8.903727434062050e-03	5.645282e-05	2.920130e-04
8.991149337442545e-03	5.184814e-06	8.281298e-04
9.055894942679247e-03	-3.479295e-05	1.277608e-03
9.122513513750690e-03	-7.002629e-05	1.692231e-03
9.184044846701499e-03	-9.201571e-05	1.978228e-03
9.229482800958193e-03	-9.969743e-05	2.102477e-03
9.257338460859675e-03	-1.004507e-04	2.135846e-03
9.276947718161836e-03	-9.914825e-05	2.139412e-03
9.300216032345342e-03	-9.566731e-05	2.122053e-03
9.318098146773002e-03	-9.160826e-05	2.093127e-03
9.332136855895368e-03	-8.761427e-05	2.060977e-03
9.344108493177471e-03	-8.367251e-05	2.027391e-03
9.357978241062308e-03	-7.852010e-05	1.981496e-03
9.373545317479972e-03	-7.203506e-05	1.921642e-03
9.388454150794470e-03	-6.518340e-05	1.856367e-03
9.418271817423466e-03	-4.984690e-05	1.705373e-03
9.477907150681459e-03	-1.460451e-05	1.341077e-03
9.542966379180789e-03	2.587560e-05	8.968505e-04
9.609440987736428e-03	6.268548e-05	4.663136e-04
9.684114111168013e-03	9.082538e-05	1.021880e-04
9.739339123279709e-03	9.912650e-05	-4.300670e-05
9.761032541614888e-03	9.914685e-05	-6.429884e-05
9.782958941725596e-03	9.728623e-05	-6.423976e-05
9.818519956806051e-03	9.035308e-05	-1.933388e-05
9.875254623493385e-03	7.015282e-05	1.588274e-04
9.961078337308931e-03	2.383402e-05	6.273111e-04
1.000000000000000e-02	-3.778945e-07	8.933304e-04
